<?xml version="1.0"?>
<opencv_storage>
<my_svm type_id="opencv-ml-svm">
  <svm_type>C_SVC</svm_type>
  <kernel><type>RBF</type>
    <gamma>1.</gamma></kernel>
  <C>1.</C>
  <term_criteria><epsilon>1.1920928955078125e-07</epsilon>
    <iterations>1000</iterations></term_criteria>
  <var_all>5</var_all>
  <var_count>5</var_count>
  <class_count>5</class_count>
  <class_labels type_id="opencv-matrix">
    <rows>1</rows>
    <cols>5</cols>
    <dt>i</dt>
    <data>
      0 1 2 3 4</data></class_labels>
  <sv_total>458</sv_total>
  <support_vectors>
    <_>
      1.80520564e-01 2.46641472e-01 2.20403016e-01 2.68891692e-01
      8.35432410e-02</_>
    <_>
      1.18823007e-01 1.92048520e-01 2.29335129e-01 3.93081754e-01
      6.67115897e-02</_>
    <_>
      2.10751161e-01 3.84478457e-02 1.52367398e-01 1.40975431e-01
      4.57458168e-01</_>
    <_>
      1.62261829e-01 1.66256905e-01 2.85187453e-01 2.32329443e-01
      1.53964356e-01</_>
    <_>
      7.90782943e-02 2.11573705e-01 2.89080918e-01 1.99004978e-01
      2.21262112e-01</_>
    <_>
      3.95262420e-01 5.57361823e-03 2.34091967e-01 1.76497906e-01
      1.88574076e-01</_>
    <_>
      1.82060599e-01 1.26060605e-01 2.16000006e-01 4.27878797e-01
      4.80000004e-02</_>
    <_>
      3.66771162e-01 8.46394971e-02 1.40617996e-01 3.32288414e-01
      7.56829381e-02</_>
    <_>
      1.49830014e-01 1.10247694e-01 1.48615822e-01 2.70519674e-01
      3.20786774e-01</_>
    <_>
      3.47086519e-01 5.06695658e-02 2.51900107e-01 2.49728560e-01
      1.00615278e-01</_>
    <_>
      1.04756512e-01 2.70951301e-01 2.34144956e-01 1.48074746e-01
      2.42072478e-01</_>
    <_>
      2.30309926e-02 4.13989216e-01 2.67273247e-01 2.35712260e-01
      5.99943139e-02</_>
    <_>
      1.91090494e-01 2.28582934e-01 1.80004030e-01 2.58818775e-01
      1.41503721e-01</_>
    <_>
      3.03382665e-01 7.25863278e-02 2.58632839e-01 2.78012663e-01
      8.73854756e-02</_>
    <_>
      5.48446085e-03 4.14787740e-01 2.50457048e-01 1.03595369e-01
      2.25675404e-01</_>
    <_>
      2.12073699e-01 1.08584866e-01 2.99490392e-01 2.75578201e-01
      1.04272835e-01</_>
    <_>
      1.39737993e-01 4.20801900e-02 1.62763000e-01 2.68360466e-01
      3.87058377e-01</_>
    <_>
      3.74070615e-01 2.27695163e-02 1.99349433e-01 2.67193317e-01
      1.36617094e-01</_>
    <_>
      1.31165922e-01 3.39237660e-01 2.00896859e-01 2.74439454e-01
      5.42600900e-02</_>
    <_>
      2.09357917e-01 9.73360613e-02 2.55122930e-01 2.01161191e-01
      2.37021849e-01</_>
    <_>
      1.34215504e-01 3.68620045e-02 1.56427220e-01 1.81001902e-01
      4.91493404e-01</_>
    <_>
      3.63269411e-02 1.82980150e-01 2.80861080e-01 2.74470210e-01
      2.25361586e-01</_>
    <_>
      1.23116501e-01 1.77875772e-01 2.86291808e-01 2.99522221e-01
      1.13193676e-01</_>
    <_>
      3.69605303e-01 8.18886012e-02 1.96606413e-01 2.93618590e-01
      5.82810752e-02</_>
    <_>
      1.20611183e-01 9.23276991e-02 2.07087129e-01 2.37646297e-01
      3.42327684e-01</_>
    <_>
      1.57955855e-01 1.08013935e-01 2.30255514e-01 3.03426236e-01
      2.00348422e-01</_>
    <_>
      1.44927539e-02 3.03966433e-01 1.56750575e-01 1.43020600e-01
      3.81769657e-01</_>
    <_>
      3.88187438e-01 2.27476984e-01 1.49796695e-01 9.28739533e-02
      1.41664878e-01</_>
    <_>
      3.53042185e-01 1.81059867e-01 2.14180574e-01 2.48037294e-01
      3.68007855e-03</_>
    <_>
      3.05613309e-01 6.11820631e-02 2.58984268e-01 2.57202268e-01
      1.17018126e-01</_>
    <_>
      9.44858417e-02 2.36661702e-01 3.17734718e-01 3.07004482e-01
      4.41132635e-02</_>
    <_>
      3.22264314e-01 1.17227547e-01 1.75172716e-01 3.25161576e-01
      6.01738356e-02</_>
    <_>
      5.67883193e-01 3.03649623e-02 1.07445255e-01 2.56642312e-01
      3.76642309e-02</_>
    <_>
      4.94584829e-01 1.85018051e-02 1.53429598e-01 2.21119136e-01
      1.12364620e-01</_>
    <_>
      3.07422549e-01 1.80303916e-01 2.85505533e-01 2.18001157e-01
      8.76680296e-03</_>
    <_>
      1.14250869e-01 3.63691807e-01 1.92925394e-01 2.80748129e-01
      4.83838171e-02</_>
    <_>
      6.08348139e-02 1.19005330e-01 2.49111906e-01 4.05417413e-01
      1.65630549e-01</_>
    <_>
      6.85308278e-02 2.93605298e-01 2.95668125e-01 2.21865684e-01
      1.20330043e-01</_>
    <_>
      1.69712797e-01 3.70757192e-01 2.09138379e-01 2.19321147e-01
      3.10704950e-02</_>
    <_>
      3.13123137e-01 8.08407441e-02 1.38237670e-01 3.93963873e-01
      7.38345459e-02</_>
    <_>
      1.80830047e-01 9.41205546e-02 1.83053374e-01 4.46887374e-01
      9.51087028e-02</_>
    <_>
      3.52874212e-02 8.59419405e-02 2.73904383e-01 2.27233917e-01
      3.77632320e-01</_>
    <_>
      3.23928386e-01 7.56918043e-02 2.15138361e-01 2.97341287e-01
      8.79001617e-02</_>
    <_>
      3.36954534e-01 1.82509497e-01 1.76353425e-01 2.38095224e-01
      6.60872683e-02</_>
    <_>
      3.17409128e-01 7.59085566e-02 1.99589685e-01 3.12133640e-01
      9.49589685e-02</_>
    <_>
      1.48340926e-01 1.23617444e-02 2.70006508e-01 2.69681215e-01
      2.99609631e-01</_>
    <_>
      8.05205330e-02 2.01504678e-01 2.94428617e-01 1.26880839e-01
      2.96665311e-01</_>
    <_>
      4.44345688e-03 2.16396362e-01 2.75938690e-01 1.98178187e-01
      3.05043310e-01</_>
    <_>
      4.35397774e-01 3.81740518e-02 1.43085957e-01 1.88200757e-01
      1.95141494e-01</_>
    <_>
      6.22585788e-02 3.54010463e-01 2.29038849e-01 1.91320151e-01
      1.63371965e-01</_>
    <_>
      1.41289055e-01 1.15113989e-01 1.90543205e-01 2.94399083e-01
      2.58654654e-01</_>
    <_>
      1.49402395e-01 2.20617533e-01 3.25863212e-01 1.13213815e-01
      1.90903068e-01</_>
    <_>
      1.18823007e-01 1.92048520e-01 2.29335129e-01 3.93081754e-01
      6.67115897e-02</_>
    <_>
      3.41276973e-01 1.70863308e-02 1.83453247e-01 4.06924456e-01
      5.12589924e-02</_>
    <_>
      5.33052236e-02 7.23384976e-01 1.65788278e-01 5.67685552e-02
      7.52898632e-04</_>
    <_>
      2.82211542e-01 2.83653855e-01 2.93389410e-01 1.40144229e-01
      6.00961561e-04</_>
    <_>
      2.07098842e-01 1.46377236e-01 2.63126999e-01 2.88060993e-01
      9.53358710e-02</_>
    <_>
      1.19129442e-01 1.52119130e-01 1.79381445e-01 1.86941579e-01
      3.62428427e-01</_>
    <_>
      2.94346988e-01 9.63519961e-02 1.79894194e-01 2.89891422e-01
      1.39515460e-01</_>
    <_>
      7.28117749e-02 1.75058097e-01 4.41130906e-01 1.09798603e-01
      2.01200619e-01</_>
    <_>
      6.50240555e-02 6.62341475e-01 1.77285314e-01 9.47659984e-02
      5.83175395e-04</_>
    <_>
      4.07812838e-03 5.95836043e-01 1.43163770e-01 8.00601020e-02
      1.76861987e-01</_>
    <_>
      8.67777541e-02 6.53321803e-01 2.24843115e-01 3.50573473e-02 0.</_>
    <_>
      1.79241166e-01 2.26777140e-02 2.55996495e-01 2.42477104e-01
      2.99607486e-01</_>
    <_>
      1.52651697e-01 3.49737227e-01 2.14524612e-01 1.61251798e-01
      1.21834688e-01</_>
    <_>
      1.48707524e-01 1.37670636e-01 1.95469067e-01 2.66918391e-01
      2.51234382e-01</_>
    <_>
      1.05420008e-01 6.87837601e-01 1.36151984e-01 6.92866445e-02
      1.30378106e-03</_>
    <_>
      1.69785172e-01 2.13444203e-01 2.44975746e-01 2.81358272e-01
      9.04365852e-02</_>
    <_>
      2.01121494e-01 3.81308421e-02 1.39065415e-01 1.34579435e-01
      4.87102807e-01</_>
    <_>
      1.03484690e-01 1.42819434e-01 4.40073937e-01 1.87434003e-01
      1.26187965e-01</_>
    <_>
      4.10855800e-01 1.82646602e-01 1.70760706e-01 1.82646602e-01
      5.30903339e-02</_>
    <_>
      3.10373098e-01 1.20541207e-01 1.98441997e-01 3.10373098e-01
      6.02706037e-02</_>
    <_>
      7.26996511e-02 3.52647573e-01 2.26128474e-01 1.44314244e-01
      2.04210073e-01</_>
    <_>
      2.30091602e-01 5.00352345e-02 2.38548264e-01 1.90627187e-01
      2.90697664e-01</_>
    <_>
      1.07381307e-01 1.85274482e-01 2.94881314e-01 1.00890204e-01
      3.11572701e-01</_>
    <_>
      2.26082817e-01 5.99714443e-02 2.49881014e-01 2.20847219e-01
      2.43217528e-01</_>
    <_>
      1.12488374e-01 2.13820875e-01 3.08955669e-01 1.34800121e-01
      2.29934916e-01</_>
    <_>
      4.72790122e-01 8.17736834e-02 1.48862660e-01 2.50791848e-01
      4.57817465e-02</_>
    <_>
      1.09769896e-01 3.31950217e-01 2.37834781e-01 3.18747640e-01
      1.69747265e-03</_>
    <_>
      4.45446879e-01 6.20242469e-02 2.03270376e-01 2.64730752e-01
      2.45277714e-02</_>
    <_>
      3.53070199e-02 2.51315802e-01 4.47368443e-01 2.64473677e-01
      1.53508771e-03</_>
    <_>
      6.68189824e-01 1.26537792e-02 7.27592260e-02 1.56766266e-01
      8.96309316e-02</_>
    <_>
      4.20515895e-01 2.54949003e-01 1.91961601e-01 1.31073788e-01
      1.49970001e-03</_>
    <_>
      4.32432425e-04 4.32432413e-01 2.25297287e-01 9.77297276e-02
      2.44108111e-01</_>
    <_>
      2.68189490e-01 4.10321467e-02 2.06006765e-01 2.25888327e-01
      2.58883238e-01</_>
    <_>
      4.07442302e-01 8.85539353e-02 1.71455488e-01 3.11822891e-01
      2.07253881e-02</_>
    <_>
      1.71769589e-01 4.67047244e-02 2.45978206e-01 3.51323307e-01
      1.84224188e-01</_>
    <_>
      1.62601635e-01 1.89455539e-01 1.35501355e-01 2.50307977e-01
      2.62133539e-01</_>
    <_>
      2.71363646e-01 5.99999987e-02 2.72727281e-01 2.76818186e-01
      1.19090907e-01</_>
    <_>
      5.12695312e-01 5.41992188e-02 1.70898438e-01 1.95800781e-01
      6.64062500e-02</_>
    <_>
      5.78309298e-01 4.16120589e-02 7.40498081e-02 1.93971172e-01
      1.12057671e-01</_>
    <_>
      2.99960263e-02 2.27453321e-01 3.42272550e-01 1.29121974e-01
      2.71156132e-01</_>
    <_>
      5.74086845e-01 2.48104744e-02 1.75740868e-01 7.54651949e-02
      1.49896622e-01</_>
    <_>
      2.54030675e-01 7.62878507e-02 2.20998824e-01 2.98466384e-01
      1.50216281e-01</_>
    <_>
      5.44968210e-02 2.11300567e-01 3.06586415e-01 1.41424268e-01
      2.86191911e-01</_>
    <_>
      9.05141234e-03 7.27612853e-01 1.61839247e-01 1.00772388e-01
      7.24112964e-04</_>
    <_>
      2.22394131e-02 3.62212330e-01 2.57203639e-01 1.66892290e-01
      1.91452324e-01</_>
    <_>
      2.46547937e-01 5.70342205e-02 3.48809302e-01 3.46207738e-01
      1.40084059e-03</_>
    <_>
      6.70268357e-01 1.01080518e-02 7.66817704e-02 1.38027191e-01
      1.04914606e-01</_>
    <_>
      3.48249018e-01 1.05836578e-01 1.02723733e-01 2.99221784e-01
      1.43968865e-01</_>
    <_>
      6.34353384e-02 2.98860848e-01 2.97967404e-01 2.23810598e-01
      1.15925848e-01</_>
    <_>
      3.59620154e-01 3.59207280e-02 8.09248611e-02 1.14781179e-01
      4.08753097e-01</_>
    <_>
      1.50999457e-01 9.29227471e-02 2.02593192e-01 2.66342521e-01
      2.87142098e-01</_>
    <_>
      4.56812307e-02 2.46558949e-01 4.51027334e-01 9.69479382e-02
      1.59784555e-01</_>
    <_>
      1.70792088e-01 3.42998579e-02 1.72913730e-01 2.68033952e-01
      3.53960395e-01</_>
    <_>
      1.42771557e-01 3.05910528e-01 2.63977617e-01 1.79712459e-01
      1.07627794e-01</_>
    <_>
      3.27771157e-01 1.32598326e-01 3.19427878e-01 1.62991658e-01
      5.72109669e-02</_>
    <_>
      2.54030675e-01 7.62878507e-02 2.20998824e-01 2.98466384e-01
      1.50216281e-01</_>
    <_>
      2.01224849e-01 1.60396621e-01 2.44094491e-01 1.93934098e-01
      2.00349957e-01</_>
    <_>
      4.07812838e-03 5.95836043e-01 1.43163770e-01 8.00601020e-02
      1.76861987e-01</_>
    <_>
      1.15811743e-01 4.85193014e-01 2.19725013e-01 1.79270223e-01 0.</_>
    <_>
      2.09545285e-01 4.26570088e-01 1.81289315e-01 1.80102095e-01
      2.49317335e-03</_>
    <_>
      4.43100989e-01 3.09388340e-02 1.89900428e-01 1.94167852e-01
      1.41891897e-01</_>
    <_>
      1.50999457e-01 9.29227471e-02 2.02593192e-01 2.66342521e-01
      2.87142098e-01</_>
    <_>
      1.67902544e-01 1.02754235e-01 3.12235177e-01 2.09480926e-01
      2.07627118e-01</_>
    <_>
      1.66074157e-01 2.94311851e-01 2.22955823e-01 1.92229569e-01
      1.24428645e-01</_>
    <_>
      1.25419926e-02 2.46360585e-01 2.08510637e-01 1.93952963e-01
      3.38633806e-01</_>
    <_>
      1.63508970e-02 9.86244529e-02 2.44484827e-01 2.38255918e-01
      4.02283967e-01</_>
    <_>
      6.80047199e-02 4.38961029e-01 3.99763882e-01 9.27981138e-02
      4.72255022e-04</_>
    <_>
      2.97914594e-02 1.74975172e-01 2.52631575e-01 1.92254215e-01
      3.50347579e-01</_>
    <_>
      1.94870502e-01 2.76087493e-01 3.17073166e-01 1.67714357e-01
      4.42544594e-02</_>
    <_>
      1.25396445e-01 1.09050989e-01 1.86386928e-01 2.36399129e-01
      3.42766523e-01</_>
    <_>
      4.09035422e-02 1.80708185e-01 2.97313809e-01 2.19474971e-01
      2.61599511e-01</_>
    <_>
      2.66611278e-01 4.60963435e-02 2.11794019e-01 2.72425234e-01
      2.03073084e-01</_>
    <_>
      4.20988388e-02 6.74496651e-01 1.29652232e-01 1.51820213e-01
      1.93207234e-03</_>
    <_>
      3.19195718e-01 1.60226196e-01 3.19195718e-01 1.99183151e-01
      2.19918299e-03</_>
    <_>
      1.79241166e-01 2.26777140e-02 2.55996495e-01 2.42477104e-01
      2.99607486e-01</_>
    <_>
      9.72644314e-02 1.05775073e-01 2.95136780e-01 4.13373828e-01
      8.84498432e-02</_>
    <_>
      4.58906963e-02 2.23404258e-01 3.72966200e-01 2.60742605e-01
      9.69962478e-02</_>
    <_>
      4.10865881e-02 3.17317486e-01 2.54499167e-01 1.04923598e-01
      2.82173187e-01</_>
    <_>
      1.27507806e-01 4.91752118e-01 2.34507352e-01 1.44895226e-01
      1.33749447e-03</_>
    <_>
      5.85937500e-03 2.84288198e-01 3.10546875e-01 2.26345494e-01
      1.72960073e-01</_>
    <_>
      2.07098842e-01 1.46377236e-01 2.63126999e-01 2.88060993e-01
      9.53358710e-02</_>
    <_>
      3.84829901e-02 3.26547682e-01 3.66146147e-01 1.73731178e-01
      9.50920284e-02</_>
    <_>
      5.85937500e-03 2.84288198e-01 3.10546875e-01 2.26345494e-01
      1.72960073e-01</_>
    <_>
      7.42034009e-03 3.91313821e-01 1.37276292e-01 8.53339136e-02
      3.78655612e-01</_>
    <_>
      1.94306612e-01 1.13084354e-01 2.65865773e-01 1.62966833e-01
      2.63776451e-01</_>
    <_>
      1.94936708e-01 1.41772153e-02 1.67088613e-01 1.46329120e-01
      4.77468371e-01</_>
    <_>
      8.82505178e-02 2.47412011e-01 2.97619045e-01 2.26708084e-01
      1.40010357e-01</_>
    <_>
      4.45446879e-01 6.20242469e-02 2.03270376e-01 2.64730752e-01
      2.45277714e-02</_>
    <_>
      3.08160454e-01 9.12863091e-02 1.73720613e-01 2.97648698e-01
      1.29183963e-01</_>
    <_>
      1.02845393e-03 6.19814873e-01 2.66369581e-01 1.12787113e-01 0.</_>
    <_>
      4.04667333e-02 1.32323727e-01 4.41906661e-01 1.95382327e-01
      1.89920560e-01</_>
    <_>
      2.00842693e-01 7.11610466e-02 2.47659177e-01 3.31928849e-01
      1.48408234e-01</_>
    <_>
      1.71769589e-01 4.67047244e-02 2.45978206e-01 3.51323307e-01
      1.84224188e-01</_>
    <_>
      3.22099596e-01 3.39994021e-02 3.49239469e-01 1.38085291e-01
      1.56576186e-01</_>
    <_>
      1.74281672e-01 2.16674522e-01 2.08666980e-01 1.63212433e-01
      2.37164393e-01</_>
    <_>
      4.47776616e-01 4.20544632e-02 1.90279201e-01 1.87866241e-01
      1.32023439e-01</_>
    <_>
      1.67135701e-01 2.72201359e-01 3.02376479e-01 2.51407117e-01
      6.87929941e-03</_>
    <_>
      3.94241810e-02 1.80598736e-01 3.12448889e-01 1.70619994e-01
      2.96908230e-01</_>
    <_>
      4.82817858e-01 1.75257728e-01 1.73048601e-01 1.65930286e-01
      2.94550788e-03</_>
    <_>
      8.90147462e-02 6.05257511e-01 1.61145538e-01 1.42017528e-01
      2.56465049e-03</_>
    <_>
      1.11910477e-02 2.07567289e-01 3.71436208e-01 2.97628582e-01
      1.12176932e-01</_>
    <_>
      2.16821417e-01 1.81685790e-01 1.50555253e-01 3.44438374e-01
      1.06499188e-01</_>
    <_>
      2.97139347e-01 6.42879084e-02 9.35096890e-02 3.50661337e-01
      1.94401726e-01</_>
    <_>
      8.56201947e-02 2.14928657e-01 3.80021960e-01 2.18221739e-01
      1.01207465e-01</_>
    <_>
      2.51464844e-01 2.91992188e-01 2.51220703e-01 2.03125000e-01
      2.19726562e-03</_>
    <_>
      3.47345136e-02 2.43141592e-01 3.14380527e-01 2.23893806e-01
      1.83849558e-01</_>
    <_>
      4.96674061e-01 4.02808562e-02 1.14190683e-01 3.18920910e-01
      2.99334805e-02</_>
    <_>
      5.71105063e-01 3.17028984e-02 1.19112320e-01 1.77083343e-01
      1.00996375e-01</_>
    <_>
      2.02976331e-01 1.47596970e-01 1.72237128e-01 2.00780675e-01
      2.76408881e-01</_>
    <_>
      1.94428489e-01 2.14388281e-01 3.15048814e-01 2.67087877e-01
      9.04652476e-03</_>
    <_>
      4.50302027e-02 1.22460186e-01 3.33882481e-01 1.82866558e-01
      3.15760583e-01</_>
    <_>
      5.36207817e-02 1.31011605e-01 2.96849072e-01 1.40961856e-01
      3.77556652e-01</_>
    <_>
      0. 4.94861484e-01 1.05674714e-01 1.10589817e-01 2.88874000e-01</_>
    <_>
      0. 3.86705816e-01 2.83510834e-01 1.50201976e-01 1.79581344e-01</_>
    <_>
      9.51617211e-02 4.04704630e-01 2.48329327e-01 1.57444537e-01
      9.43598002e-02</_>
    <_>
      3.85631248e-02 1.35235071e-01 3.46539855e-01 1.69043839e-01
      3.10618043e-01</_>
    <_>
      1.51285925e-03 4.91679281e-01 2.38124058e-01 1.65809378e-01
      1.02874435e-01</_>
    <_>
      9.49796475e-03 3.58208954e-01 3.27679783e-01 2.25915879e-01
      7.86974207e-02</_>
    <_>
      3.86286830e-03 3.73008221e-01 2.49396428e-01 1.08643174e-01
      2.65089333e-01</_>
    <_>
      2.89017335e-04 6.72254324e-01 1.09826587e-01 1.51156068e-01
      6.64739907e-02</_>
    <_>
      0. 4.55951571e-01 2.38735706e-01 1.45595148e-01 1.59717545e-01</_>
    <_>
      4.86373156e-02 2.66247392e-01 3.09014678e-01 3.45492661e-01
      3.06079667e-02</_>
    <_>
      1.95954498e-02 2.37041727e-01 3.36915314e-01 1.63400769e-01
      2.43046790e-01</_>
    <_>
      1.57604413e-03 8.44234347e-01 1.11636460e-01 3.72997113e-02
      5.25348075e-03</_>
    <_>
      1.26406923e-02 2.90043265e-01 4.20952350e-01 6.90909028e-02
      2.07272723e-01</_>
    <_>
      8.79999995e-02 1.75999999e-01 3.69684190e-01 3.41894716e-01
      2.44210530e-02</_>
    <_>
      1.16886765e-01 4.32424843e-01 2.21972466e-01 1.37398154e-01
      9.13177878e-02</_>
    <_>
      1.68460459e-02 1.69396341e-01 3.53299022e-01 2.58306026e-01
      2.02152550e-01</_>
    <_>
      1.90900406e-03 8.73687565e-01 1.12631246e-01 1.17721921e-02 0.</_>
    <_>
      2.29885057e-03 7.72126436e-01 1.68678164e-01 5.63218370e-02
      5.74712642e-04</_>
    <_>
      1.12982308e-02 3.02707314e-01 2.97804296e-01 1.32167980e-01
      2.56022185e-01</_>
    <_>
      3.38635221e-02 1.39045671e-01 2.73473591e-01 1.25192404e-01
      4.28424835e-01</_>
    <_>
      0. 7.16399193e-01 1.68756276e-01 5.79237714e-02 5.69207631e-02</_>
    <_>
      1.78660061e-02 1.52853608e-01 3.60297769e-01 1.96526065e-01
      2.72456586e-01</_>
    <_>
      1.03092780e-02 1.91842228e-01 3.23173463e-01 9.63693410e-02
      3.78305703e-01</_>
    <_>
      3.58809792e-02 3.35472584e-01 3.87397915e-01 1.22812137e-01
      1.18436404e-01</_>
    <_>
      1.13744074e-02 1.75355449e-01 2.99526066e-01 2.53080577e-01
      2.60663509e-01</_>
    <_>
      0. 9.28253114e-01 5.59269153e-02 1.38146160e-02 2.00534752e-03</_>
    <_>
      1.35939583e-01 1.12394497e-01 3.00310969e-01 1.49711236e-01
      3.01643729e-01</_>
    <_>
      3.86286830e-03 3.73008221e-01 2.49396428e-01 1.08643174e-01
      2.65089333e-01</_>
    <_>
      1.03332475e-03 8.43451321e-01 1.17282361e-01 3.35830525e-02
      4.64996137e-03</_>
    <_>
      7.48239458e-02 3.70598584e-01 3.56073946e-01 1.42165497e-01
      5.63380271e-02</_>
    <_>
      2.40211398e-03 7.29521990e-01 1.85923621e-01 7.73480684e-02
      4.80422797e-03</_>
    <_>
      1.91743299e-02 6.01056516e-01 2.71571130e-01 1.01154372e-01
      7.04363128e-03</_>
    <_>
      5.08701466e-02 1.33422583e-01 3.31548423e-01 2.23114684e-01
      2.61044174e-01</_>
    <_>
      8.40680767e-03 6.68033600e-01 2.08734870e-01 1.01291776e-01
      1.35329096e-02</_>
    <_>
      7.35735744e-02 2.17342347e-01 3.34834844e-01 2.88663685e-01
      8.55855867e-02</_>
    <_>
      0. 9.19265568e-01 6.13682084e-02 1.40845068e-02 5.28169004e-03</_>
    <_>
      1.24727155e-03 2.51013398e-01 3.23666960e-01 2.18896151e-01
      2.05176175e-01</_>
    <_>
      9.26706009e-03 5.61078310e-01 2.33993262e-01 1.34161755e-01
      6.14995770e-02</_>
    <_>
      2.82513406e-02 1.45640522e-01 3.56064290e-01 1.85582072e-01
      2.84461766e-01</_>
    <_>
      2.37937868e-02 3.63956809e-01 2.77153552e-01 1.33289263e-01
      2.01806560e-01</_>
    <_>
      1.23407645e-02 1.76751599e-01 3.62261146e-01 2.21735671e-01
      2.26910830e-01</_>
    <_>
      2.97684688e-02 1.64829105e-01 3.07607502e-01 1.81918412e-01
      3.15876514e-01</_>
    <_>
      1.15048327e-02 1.68430746e-01 3.71375978e-01 1.74413264e-01
      2.74275213e-01</_>
    <_>
      1.92222707e-02 3.26336712e-01 2.87008405e-01 5.08174971e-02
      3.16615105e-01</_>
    <_>
      1.98640879e-02 1.54730782e-01 3.44485104e-01 1.78776786e-01
      3.02143216e-01</_>
    <_>
      3.89084034e-02 4.85814661e-01 2.32099444e-01 2.26695493e-01
      1.64820328e-02</_>
    <_>
      4.31617238e-02 1.31045237e-01 3.25012982e-01 1.80967227e-01
      3.19812775e-01</_>
    <_>
      1.28328521e-03 1.62335575e-01 2.50882268e-01 1.18703879e-01
      4.66794997e-01</_>
    <_>
      1.71890799e-02 1.01617798e-01 3.03842276e-01 8.79676491e-02
      4.89383221e-01</_>
    <_>
      3.54074463e-02 2.68940389e-01 2.14006767e-01 1.03358500e-01
      3.78286898e-01</_>
    <_>
      8.84173322e-04 8.91909838e-01 8.97435918e-02 1.50309466e-02
      2.43147672e-03</_>
    <_>
      1.35318004e-03 5.05277395e-01 2.33017594e-01 1.86468199e-01
      7.38836303e-02</_>
    <_>
      6.73220754e-02 2.19918787e-01 3.16306889e-01 1.88501820e-01
      2.07950413e-01</_>
    <_>
      1.50572825e-02 3.74140739e-01 2.62520462e-01 1.77086741e-01
      1.71194762e-01</_>
    <_>
      0. 5.74328780e-01 2.26915523e-01 1.67648986e-01 3.11067458e-02</_>
    <_>
      6.84462721e-04 8.06639314e-01 1.35694727e-01 3.25119793e-02
      2.44695414e-02</_>
    <_>
      3.29091703e-03 5.04826665e-01 1.70030713e-01 1.36463359e-01
      1.85388327e-01</_>
    <_>
      2.07293667e-02 3.40499043e-01 2.93282151e-01 1.92706332e-01
      1.52783111e-01</_>
    <_>
      1.73290208e-01 1.10443622e-01 2.77726442e-01 3.60443622e-01
      7.80961215e-02</_>
    <_>
      4.00641039e-02 3.03205132e-01 2.46474370e-01 3.01602572e-01
      1.08653851e-01</_>
    <_>
      0. 4.80366856e-01 1.99484095e-01 1.04614504e-01 2.15534538e-01</_>
    <_>
      1.46464650e-02 6.46212161e-01 2.16161624e-01 7.60101080e-02
      4.69697006e-02</_>
    <_>
      9.78260860e-03 1.34782597e-01 3.60869557e-01 1.55434772e-01
      3.39130431e-01</_>
    <_>
      1.10724792e-01 2.78149247e-01 2.65311569e-01 2.35624507e-01
      1.10189892e-01</_>
    <_>
      0. 8.46747756e-01 1.38583288e-01 1.44759705e-02 1.93012937e-04</_>
    <_>
      7.19148889e-02 2.11063832e-01 3.74893606e-01 3.37446809e-01
      4.68085101e-03</_>
    <_>
      1.46464650e-02 6.46212161e-01 2.16161624e-01 7.60101080e-02
      4.69697006e-02</_>
    <_>
      1.00401603e-03 3.74163330e-01 2.80789822e-01 1.27844706e-01
      2.16198131e-01</_>
    <_>
      1.19154004e-03 5.82960963e-01 1.74560621e-01 2.12392017e-01
      2.88948454e-02</_>
    <_>
      0. 9.57142889e-01 3.67965363e-02 5.62770572e-03 4.32900444e-04</_>
    <_>
      2.67391801e-02 6.43099964e-01 2.07115352e-01 9.31339264e-02
      2.99116261e-02</_>
    <_>
      3.87703419e-01 1.80108488e-01 2.12296560e-01 2.18806505e-01
      1.08499092e-03</_>
    <_>
      3.31790112e-02 2.53086418e-01 3.41820985e-01 2.85108030e-01
      8.68055597e-02</_>
    <_>
      5.05050505e-03 5.59458196e-01 2.09366396e-01 2.25436181e-01
      6.88705244e-04</_>
    <_>
      0. 4.27311420e-01 2.25973234e-01 1.14051096e-01 2.32664227e-01</_>
    <_>
      6.48368266e-04 8.47417355e-01 1.19299762e-01 2.76637133e-02
      4.97082341e-03</_>
    <_>
      4.47027269e-04 8.86902094e-01 8.85113999e-02 2.19043363e-02
      2.23513646e-03</_>
    <_>
      3.37932981e-03 6.24612808e-01 1.50661781e-01 1.96845964e-01
      2.45001409e-02</_>
    <_>
      1.40016797e-04 8.05656672e-01 1.05292633e-01 8.83506015e-02
      5.60067187e-04</_>
    <_>
      2.60281115e-04 5.26028156e-01 2.20978662e-01 3.93024497e-02
      2.13430509e-01</_>
    <_>
      5.19845486e-02 3.83561671e-01 2.49034077e-01 1.93888307e-01
      1.21531442e-01</_>
    <_>
      3.71210556e-03 6.83646083e-01 2.13033617e-01 9.28026363e-02
      6.80552656e-03</_>
    <_>
      2.23970935e-02 7.21347868e-01 1.06133975e-01 5.69007248e-02
      9.32203382e-02</_>
    <_>
      4.83822217e-03 3.44420940e-01 4.09132153e-01 7.16661662e-02
      1.69942558e-01</_>
    <_>
      3.54074463e-02 2.68940389e-01 2.14006767e-01 1.03358500e-01
      3.78286898e-01</_>
    <_>
      2.22961739e-01 2.34608993e-01 1.43464595e-01 1.12220377e-01
      2.86744326e-01</_>
    <_>
      4.75737415e-02 2.35014275e-01 2.43260384e-01 3.36187750e-01
      1.37963846e-01</_>
    <_>
      2.92397657e-04 6.36842072e-01 1.45614028e-01 9.88304093e-02
      1.18421048e-01</_>
    <_>
      2.17785835e-02 1.51088923e-01 3.39836657e-01 2.15063527e-01
      2.72232294e-01</_>
    <_>
      1.81308016e-02 4.89963323e-01 2.65270889e-01 2.16706246e-01
      9.92877223e-03</_>
    <_>
      1.66061241e-02 1.22470163e-01 3.28489900e-01 1.58277124e-01
      3.74156743e-01</_>
    <_>
      1.24727155e-03 2.51013398e-01 3.23666960e-01 2.18896151e-01
      2.05176175e-01</_>
    <_>
      2.50556804e-02 1.09688200e-01 3.72494429e-01 1.84298441e-01
      3.08463275e-01</_>
    <_>
      2.81086229e-02 1.37684613e-01 3.54454488e-01 1.82467833e-01
      2.97284424e-01</_>
    <_>
      4.46428582e-02 5.07488489e-01 2.65841007e-01 9.36059877e-02
      8.84216577e-02</_>
    <_>
      1.67164169e-02 1.66865662e-01 2.38805965e-01 9.61193964e-02
      4.81492519e-01</_>
    <_>
      2.86615075e-04 2.59673268e-01 1.45313844e-01 1.06620811e-01
      4.88105476e-01</_>
    <_>
      8.27319175e-03 5.63809216e-01 2.14398876e-01 1.93451867e-01
      2.00668909e-02</_>
    <_>
      1.03519671e-02 2.66563147e-01 3.53260875e-01 1.35610774e-01
      2.34213248e-01</_>
    <_>
      0. 4.88473773e-01 4.33624804e-01 7.79014304e-02 0.</_>
    <_>
      6.40307320e-04 9.42692459e-01 4.59420495e-02 1.02449171e-02
      4.80230490e-04</_>
    <_>
      8.85889027e-03 3.37903410e-01 3.07530046e-01 1.66209668e-01
      1.79498002e-01</_>
    <_>
      4.77440917e-04 3.26092154e-01 2.98639297e-01 1.75936982e-01
      1.98854148e-01</_>
    <_>
      1.65425974e-03 2.98387110e-01 3.18651795e-01 8.85028988e-02
      2.92803973e-01</_>
    <_>
      6.00195974e-02 3.80205780e-01 3.46398801e-01 2.09211156e-01
      4.16462496e-03</_>
    <_>
      7.28117749e-02 1.75058097e-01 4.41130906e-01 1.09798603e-01
      2.01200619e-01</_>
    <_>
      2.47239158e-03 8.14900279e-01 1.26751274e-01 5.42277917e-02
      1.64826110e-03</_>
    <_>
      5.77053614e-03 6.50373340e-01 1.42566189e-01 1.26272902e-01
      7.50169680e-02</_>
    <_>
      1.46928743e-01 5.54545462e-01 2.48648643e-01 4.61916439e-02
      3.68550373e-03</_>
    <_>
      4.14078683e-03 4.04554874e-01 1.84265018e-01 1.39337480e-01
      2.67701864e-01</_>
    <_>
      1.12982308e-02 3.02707314e-01 2.97804296e-01 1.32167980e-01
      2.56022185e-01</_>
    <_>
      6.00817101e-03 2.58351356e-01 3.52799803e-01 2.17255473e-01
      1.65585190e-01</_>
    <_>
      3.02663422e-03 3.26674730e-01 2.67150909e-01 1.01089582e-01
      3.02058101e-01</_>
    <_>
      2.72925757e-03 2.30895206e-01 3.31604809e-01 1.34279475e-01
      3.00491273e-01</_>
    <_>
      1.10192839e-02 2.98438936e-01 4.06106532e-01 1.60927460e-01
      1.23507805e-01</_>
    <_>
      1.04174949e-01 4.49304193e-01 2.83101410e-01 1.34592444e-01
      2.88270377e-02</_>
    <_>
      1.63636375e-02 2.65656561e-01 3.60404044e-01 1.43838391e-01
      2.13737383e-01</_>
    <_>
      1.81200448e-02 3.25481296e-01 2.62740642e-01 1.37712345e-01
      2.55945623e-01</_>
    <_>
      1.91743299e-02 6.01056516e-01 2.71571130e-01 1.01154372e-01
      7.04363128e-03</_>
    <_>
      1.92350205e-02 3.17709476e-01 2.89851874e-01 1.09661728e-01
      2.63541907e-01</_>
    <_>
      1.95977837e-01 2.29427457e-01 2.86476493e-01 2.29017019e-01
      5.91011681e-02</_>
    <_>
      4.55788523e-03 4.00866002e-01 2.32907936e-01 1.84594348e-01
      1.77073836e-01</_>
    <_>
      4.32432425e-04 4.32432413e-01 2.25297287e-01 9.77297276e-02
      2.44108111e-01</_>
    <_>
      7.57320784e-03 7.47223198e-01 1.00471228e-01 9.05419067e-02
      5.41905090e-02</_>
    <_>
      5.90470619e-02 1.21601865e-01 2.63957888e-01 2.56942391e-01
      2.98450738e-01</_>
    <_>
      3.58140729e-02 4.80314970e-01 1.64592326e-01 2.09042415e-01
      1.10236220e-01</_>
    <_>
      2.12462708e-01 1.17003642e-01 3.11567783e-01 2.05170691e-01
      1.53795153e-01</_>
    <_>
      2.96867695e-02 2.27676481e-01 2.83543706e-01 1.12201966e-01
      3.46891075e-01</_>
    <_>
      3.13549815e-03 2.65173554e-01 2.73684204e-01 2.20828667e-01
      2.37178043e-01</_>
    <_>
      1.66923240e-01 1.31295353e-01 3.33846480e-01 1.53507799e-01
      2.14427084e-01</_>
    <_>
      8.81057233e-03 3.07111382e-01 2.92846650e-01 1.21879585e-01
      2.69351780e-01</_>
    <_>
      9.99447778e-02 2.90723354e-01 2.49861941e-01 8.89011547e-02
      2.70568728e-01</_>
    <_>
      6.02409616e-03 2.46485934e-01 2.91164637e-01 9.96485874e-02
      3.56676698e-01</_>
    <_>
      3.29091703e-03 5.04826665e-01 1.70030713e-01 1.36463359e-01
      1.85388327e-01</_>
    <_>
      0. 7.35645354e-01 1.07639462e-01 4.54768538e-02 1.11238346e-01</_>
    <_>
      1.65425974e-03 2.98387110e-01 3.18651795e-01 8.85028988e-02
      2.92803973e-01</_>
    <_>
      1.02564106e-02 3.15018326e-01 3.55311364e-01 1.42368749e-01
      1.77045181e-01</_>
    <_>
      5.47495205e-03 4.94388163e-01 2.56227762e-01 1.85874626e-01
      5.80344908e-02</_>
    <_>
      2.85536945e-02 2.43016765e-01 2.23153338e-01 1.70701429e-01
      3.34574819e-01</_>
    <_>
      1.09072886e-02 3.59196842e-01 2.27317810e-01 1.43034220e-01
      2.59543896e-01</_>
    <_>
      1.09866895e-02 5.03063619e-01 2.90513426e-01 1.47263899e-01
      4.81724069e-02</_>
    <_>
      4.14078683e-03 4.04554874e-01 1.84265018e-01 1.39337480e-01
      2.67701864e-01</_>
    <_>
      9.24427994e-04 9.59556282e-01 1.61774904e-02 2.01063082e-02
      3.23549798e-03</_>
    <_>
      5.20036742e-03 5.11165500e-01 8.41235891e-02 3.59131247e-01
      4.03793231e-02</_>
    <_>
      1.84179917e-01 2.49321446e-01 2.83637077e-01 2.15781316e-01
      6.70802668e-02</_>
    <_>
      2.45343857e-02 3.48495722e-01 3.41153294e-01 1.20343842e-01
      1.65472791e-01</_>
    <_>
      2.05859058e-02 7.26642907e-01 1.52810767e-01 6.47268370e-02
      3.52335721e-02</_>
    <_>
      1.28617361e-02 3.16720247e-01 2.98633426e-01 3.19131821e-01
      5.26527315e-02</_>
    <_>
      1.02819592e-01 3.74390513e-01 2.85986871e-01 2.06487179e-01
      3.03158797e-02</_>
    <_>
      0. 6.63636386e-01 2.09936574e-01 1.01691335e-01 2.47357301e-02</_>
    <_>
      2.96867695e-02 2.27676481e-01 2.83543706e-01 1.12201966e-01
      3.46891075e-01</_>
    <_>
      1.25419926e-02 2.46360585e-01 2.08510637e-01 1.93952963e-01
      3.38633806e-01</_>
    <_>
      1.63508970e-02 9.86244529e-02 2.44484827e-01 2.38255918e-01
      4.02283967e-01</_>
    <_>
      1.24971597e-02 2.03817308e-01 4.00136322e-01 1.92001820e-01
      1.91547379e-01</_>
    <_>
      5.59944250e-02 1.75882891e-01 2.85548329e-01 1.44052044e-01
      3.38522315e-01</_>
    <_>
      8.71991646e-03 6.62364841e-01 2.77642131e-01 4.74363454e-02
      3.83676332e-03</_>
    <_>
      6.40307320e-04 9.42692459e-01 4.59420495e-02 1.02449171e-02
      4.80230490e-04</_>
    <_>
      6.89303083e-03 2.75465935e-01 3.82435560e-01 1.65688038e-01
      1.69517502e-01</_>
    <_>
      2.01760815e-03 4.60381508e-01 2.55502582e-01 8.71239901e-02
      1.94974318e-01</_>
    <_>
      9.31542460e-03 1.37781635e-01 3.43370885e-01 8.90381262e-02
      4.20493931e-01</_>
    <_>
      9.93657578e-03 2.73995787e-01 3.54968309e-01 2.30655402e-01
      1.30443975e-01</_>
    <_>
      1.26807007e-03 3.43646973e-01 2.45498359e-01 7.53233582e-02
      3.34263265e-01</_>
    <_>
      1.27031570e-02 2.50887334e-01 2.96842873e-01 2.00261533e-01
      2.39305049e-01</_>
    <_>
      0. 5.86890221e-01 1.80068597e-01 1.50724083e-01 8.23170692e-02</_>
    <_>
      4.33025416e-03 4.12095845e-01 3.10912251e-01 6.81293309e-02
      2.04532325e-01</_>
    <_>
      1.90888822e-01 1.55731604e-01 2.69868761e-01 2.21094325e-01
      1.62416428e-01</_>
    <_>
      3.29091703e-03 5.04826665e-01 1.70030713e-01 1.36463359e-01
      1.85388327e-01</_>
    <_>
      1.03778914e-01 3.40383559e-01 4.52904701e-01 9.81387496e-02
      4.79413429e-03</_>
    <_>
      9.93657578e-03 2.73995787e-01 3.54968309e-01 2.30655402e-01
      1.30443975e-01</_>
    <_>
      1.40224360e-02 4.40304488e-01 3.41746807e-01 6.73076957e-02
      1.36618584e-01</_>
    <_>
      2.60247244e-03 2.66319662e-01 3.60442430e-01 1.99956626e-01
      1.70678809e-01</_>
    <_>
      7.70341838e-03 1.29032254e-01 3.29080403e-01 1.56234950e-01
      3.77948970e-01</_>
    <_>
      0. 8.46747756e-01 1.38583288e-01 1.44759705e-02 1.93012937e-04</_>
    <_>
      1.84672209e-03 2.85934120e-01 4.13050175e-01 2.24068940e-01
      7.51000270e-02</_>
    <_>
      2.02020202e-02 2.34343424e-01 4.12121207e-01 1.79349050e-01
      1.53984278e-01</_>
    <_>
      0. 6.79538071e-01 2.31685311e-01 1.84049085e-02 7.03717023e-02</_>
    <_>
      7.42034009e-03 3.91313821e-01 1.37276292e-01 8.53339136e-02
      3.78655612e-01</_>
    <_>
      4.05186380e-04 5.25729299e-01 1.76458672e-01 1.17706642e-01
      1.79700166e-01</_>
    <_>
      4.47308570e-02 3.98534238e-01 2.27192327e-01 1.13469802e-01
      2.16072783e-01</_>
    <_>
      4.70619537e-02 1.72826380e-01 3.78622711e-01 1.52618989e-01
      2.48870000e-01</_>
    <_>
      2.09392756e-02 6.28178269e-02 1.95931792e-01 1.58839360e-01
      5.61471760e-01</_>
    <_>
      0. 9.04094815e-01 7.32758641e-02 2.11925283e-02 1.43678160e-03</_>
    <_>
      1.34189412e-01 1.46067426e-01 2.59711087e-01 1.71428576e-01
      2.88603544e-01</_>
    <_>
      1.14493156e-02 3.34822685e-01 2.18654007e-01 1.49399608e-01
      2.85674393e-01</_>
    <_>
      5.49872145e-02 3.04603577e-01 3.36572886e-01 2.50639379e-01
      5.31969331e-02</_>
    <_>
      7.74993561e-04 8.55592906e-01 9.42908823e-02 2.19581500e-02
      2.73831058e-02</_>
    <_>
      1.02765910e-01 2.52080053e-01 3.14369231e-01 1.60557687e-01
      1.70227125e-01</_>
    <_>
      5.05050505e-03 5.59458196e-01 2.09366396e-01 2.25436181e-01
      6.88705244e-04</_>
    <_>
      1.22866891e-02 3.03299218e-01 3.19453925e-01 9.55631435e-02
      2.69397050e-01</_>
    <_>
      2.28106976e-01 1.96119562e-01 3.70477200e-01 1.74882010e-01
      3.04142628e-02</_>
    <_>
      5.38079487e-03 6.09478474e-01 1.96192056e-01 7.74006620e-02
      1.11548014e-01</_>
    <_>
      9.55929980e-03 3.22585851e-01 2.38820463e-01 1.41769275e-01
      2.87265062e-01</_>
    <_>
      9.41619568e-04 2.84604520e-01 2.78719395e-01 1.50894538e-01
      2.84839928e-01</_>
    <_>
      2.66320985e-02 2.52651423e-01 2.81404674e-01 1.81239679e-01
      2.58072108e-01</_>
    <_>
      2.55959854e-02 2.41154328e-01 3.16938519e-01 2.50188202e-01
      1.66122958e-01</_>
    <_>
      9.40955069e-04 3.06751341e-01 2.95930356e-01 7.97459409e-02
      3.16631377e-01</_>
    <_>
      1.20333776e-01 3.17083895e-01 2.91611761e-01 2.44180948e-01
      2.67896354e-02</_>
    <_>
      2.70824786e-02 2.51128435e-01 3.25810432e-01 7.98112452e-02
      3.16167414e-01</_>
    <_>
      1.65654323e-03 2.03202650e-01 3.89287680e-01 4.19657640e-02
      3.63887340e-01</_>
    <_>
      1.26807007e-03 3.43646973e-01 2.45498359e-01 7.53233582e-02
      3.34263265e-01</_>
    <_>
      3.75905819e-02 4.77807969e-01 3.02762687e-01 1.77083343e-01
      4.75543505e-03</_>
    <_>
      1.85839063e-03 2.53856152e-01 2.16502503e-01 7.06188455e-02
      4.57164079e-01</_>
    <_>
      1.87199581e-02 3.19757134e-01 2.85858840e-01 1.98583350e-01
      1.77080691e-01</_>
    <_>
      1.75768994e-02 4.73111540e-01 2.77045399e-01 2.22012982e-01
      1.02531910e-02</_>
    <_>
      3.47345136e-02 2.43141592e-01 3.14380527e-01 2.23893806e-01
      1.83849558e-01</_>
    <_>
      1.05396286e-03 2.93423265e-01 2.35876903e-01 1.36172011e-01
      3.33473861e-01</_>
    <_>
      2.47511454e-02 3.10734481e-01 3.12079638e-01 2.18724787e-01
      1.33709982e-01</_>
    <_>
      1.08951405e-01 2.58823544e-01 2.30179027e-01 2.03580558e-01
      1.98465481e-01</_>
    <_>
      5.59944250e-02 1.75882891e-01 2.85548329e-01 1.44052044e-01
      3.38522315e-01</_>
    <_>
      4.55788523e-03 4.00866002e-01 2.32907936e-01 1.84594348e-01
      1.77073836e-01</_>
    <_>
      5.28860688e-02 5.01662135e-01 3.17920834e-01 1.10909641e-01
      1.66213363e-02</_>
    <_>
      4.57038403e-01 9.39670950e-02 2.63985395e-01 8.04387629e-02
      1.04570389e-01</_>
    <_>
      2.84333248e-04 2.16661930e-01 3.36081892e-01 3.92379873e-02
      4.07733887e-01</_>
    <_>
      4.43578154e-01 5.49856387e-02 1.30693480e-01 1.69881001e-01
      2.00861707e-01</_>
    <_>
      1.67164169e-02 1.66865662e-01 2.38805965e-01 9.61193964e-02
      4.81492519e-01</_>
    <_>
      2.29243204e-01 1.39603227e-01 2.81410724e-01 1.94709763e-01
      1.55033067e-01</_>
    <_>
      4.09043670e-01 9.71933454e-02 1.49688154e-01 1.95426196e-01
      1.48648649e-01</_>
    <_>
      4.72681850e-01 7.49297515e-02 1.88573211e-01 1.26443952e-01
      1.37371212e-01</_>
    <_>
      1.23369759e-02 3.83503705e-01 3.32393378e-01 3.06661967e-02
      2.41099745e-01</_>
    <_>
      2.78277159e-01 1.49438202e-01 2.07490638e-01 1.79400757e-01
      1.85393259e-01</_>
    <_>
      3.08176100e-01 8.71926844e-02 4.21097755e-01 7.89022297e-02
      1.04631215e-01</_>
    <_>
      8.54929164e-03 3.76970321e-01 3.45979154e-01 3.60673256e-02
      2.32433870e-01</_>
    <_>
      3.18343714e-02 3.32368672e-01 3.89581501e-01 1.72751561e-01
      7.34639391e-02</_>
    <_>
      7.28117749e-02 1.75058097e-01 4.41130906e-01 1.09798603e-01
      2.01200619e-01</_>
    <_>
      1.82523713e-01 2.69042820e-01 2.43173331e-01 1.37108371e-01
      1.68151766e-01</_>
    <_>
      3.53465043e-02 3.09768975e-01 2.73030877e-01 1.63373217e-01
      2.18480363e-01</_>
    <_>
      2.51509045e-04 8.58148873e-01 1.14688128e-01 2.48993952e-02
      2.01207236e-03</_>
    <_>
      1.17318437e-01 8.71508345e-02 2.22346365e-01 7.52327740e-02
      4.97951567e-01</_>
    <_>
      0. 2.66027391e-01 2.57260263e-01 1.53698638e-01 3.23013693e-01</_>
    <_>
      5.94123065e-01 4.04040404e-02 7.43801668e-02 1.21212117e-01
      1.69880629e-01</_>
    <_>
      1.45118739e-02 1.70184702e-01 2.52638519e-01 7.88258612e-02
      4.83839065e-01</_>
    <_>
      3.67974132e-01 6.30812794e-02 3.33198547e-01 1.57298833e-01
      7.84472302e-02</_>
    <_>
      8.75401252e-04 2.89757818e-01 1.92004681e-01 6.62386939e-02
      4.51123446e-01</_>
    <_>
      4.79694396e-01 2.65379976e-02 1.98230803e-01 1.46361083e-01
      1.49175718e-01</_>
    <_>
      4.50136274e-01 8.61035436e-02 1.58583120e-01 1.86376035e-01
      1.18801095e-01</_>
    <_>
      3.36791158e-01 1.20331950e-01 1.67358235e-01 2.12309822e-01
      1.63208857e-01</_>
    <_>
      1.18428648e-01 2.69208550e-01 1.77065268e-01 2.62564987e-01
      1.72732517e-01</_>
    <_>
      2.31833920e-01 1.16782010e-01 2.44809702e-01 1.69982702e-01
      2.36591697e-01</_>
    <_>
      6.99827746e-02 3.73385012e-01 1.63652033e-01 1.92721799e-01
      2.00258404e-01</_>
    <_>
      4.41739112e-01 6.60869554e-02 2.06956521e-01 1.23826087e-01
      1.61391303e-01</_>
    <_>
      1.08951405e-01 2.58823544e-01 2.30179027e-01 2.03580558e-01
      1.98465481e-01</_>
    <_>
      1.12561905e-03 7.81629920e-01 9.41017568e-02 9.07249004e-02
      3.24178301e-02</_>
    <_>
      2.05844507e-01 1.99779451e-01 3.68314654e-01 1.01451941e-01
      1.24609448e-01</_>
    <_>
      1.92272022e-01 1.12828434e-01 3.17774326e-01 1.75579593e-01
      2.01545596e-01</_>
    <_>
      4.64888709e-03 3.42794240e-01 3.78272593e-01 6.01908527e-02
      2.14093477e-01</_>
    <_>
      5.34045394e-04 6.18958592e-01 1.26301736e-01 9.95994657e-02
      1.54606149e-01</_>
    <_>
      4.33025416e-03 4.12095845e-01 3.10912251e-01 6.81293309e-02
      2.04532325e-01</_>
    <_>
      1.06769018e-01 5.36403835e-01 2.64014900e-01 9.28122848e-02 0.</_>
    <_>
      4.41474646e-01 3.31797227e-02 1.10599078e-01 1.66820273e-01
      2.47926265e-01</_>
    <_>
      3.56531352e-01 1.59900576e-01 3.29743147e-01 4.72245216e-02
      1.06600381e-01</_>
    <_>
      1.95977837e-01 2.29427457e-01 2.86476493e-01 2.29017019e-01
      5.91011681e-02</_>
    <_>
      2.42809013e-01 1.64032131e-01 2.67945051e-01 2.17672959e-01
      1.07540809e-01</_>
    <_>
      2.06247494e-01 1.82218671e-01 3.20784956e-01 1.96635962e-01
      9.41129401e-02</_>
    <_>
      1.09866895e-02 5.03063619e-01 2.90513426e-01 1.47263899e-01
      4.81724069e-02</_>
    <_>
      1.77738280e-03 2.48167068e-01 2.77493894e-01 6.13197051e-02
      4.11241949e-01</_>
    <_>
      1.78810908e-03 3.88913721e-01 2.94143945e-01 1.45283863e-01
      1.69870362e-01</_>
    <_>
      5.16010523e-01 8.74015763e-02 2.30446190e-01 1.39895007e-01
      2.62467191e-02</_>
    <_>
      3.64201009e-01 8.52625594e-02 1.67701855e-01 1.77300960e-01
      2.05533594e-01</_>
    <_>
      4.07933384e-01 6.61116540e-02 1.56709105e-01 1.14103816e-01
      2.55142003e-01</_>
    <_>
      2.36798485e-04 6.96897924e-01 2.25432158e-01 6.06204122e-02
      1.68126933e-02</_>
    <_>
      9.06408131e-02 8.26306939e-02 2.44519398e-01 1.88870162e-01
      3.93338948e-01</_>
    <_>
      0. 2.26465657e-01 2.68676728e-01 1.68174207e-01 3.36683422e-01</_>
    <_>
      1.36529133e-01 2.59708732e-01 3.03398073e-01 1.29550979e-01
      1.70813113e-01</_>
    <_>
      9.31542460e-03 1.37781635e-01 3.43370885e-01 8.90381262e-02
      4.20493931e-01</_>
    <_>
      3.16836059e-01 9.32390615e-02 2.64692873e-01 1.79849759e-01
      1.45382240e-01</_>
    <_>
      1.02529046e-03 7.10184515e-01 2.60765553e-01 2.76828427e-02
      3.41763487e-04</_>
    <_>
      1.62528213e-02 1.04288936e-01 3.55304748e-01 1.06997743e-01
      4.17155743e-01</_>
    <_>
      8.75401252e-04 2.89757818e-01 1.92004681e-01 6.62386939e-02
      4.51123446e-01</_>
    <_>
      3.38548347e-02 2.02616051e-01 3.54962826e-01 3.02641720e-01
      1.05924599e-01</_>
    <_>
      0. 5.66874743e-01 3.46411049e-01 7.33392760e-02 1.33749442e-02</_>
    <_>
      3.82047087e-01 7.38916248e-02 1.77339897e-01 2.01423094e-01
      1.65298298e-01</_>
    <_>
      2.62548268e-01 2.15250954e-01 1.91602319e-01 9.89382192e-02
      2.31660232e-01</_>
    <_>
      2.64786422e-01 1.68127060e-01 1.57721803e-01 1.75246447e-01
      2.34118298e-01</_>
    <_>
      1.09575987e-02 6.91916764e-01 1.90090522e-01 2.27092262e-02
      8.43258649e-02</_>
    <_>
      2.05844507e-01 1.99779451e-01 3.68314654e-01 1.01451941e-01
      1.24609448e-01</_>
    <_>
      9.46431980e-03 7.35188365e-01 1.02593228e-01 1.17168278e-01
      3.55858430e-02</_>
    <_>
      7.37559274e-02 1.99644551e-01 3.02428931e-01 1.30627960e-01
      2.93542653e-01</_>
    <_>
      1.91743299e-02 6.01056516e-01 2.71571130e-01 1.01154372e-01
      7.04363128e-03</_>
    <_>
      9.18892473e-02 1.62705228e-01 3.50404322e-01 1.48247987e-01
      2.46753246e-01</_>
    <_>
      7.42034009e-03 3.91313821e-01 1.37276292e-01 8.53339136e-02
      3.78655612e-01</_>
    <_>
      2.84333248e-04 2.16661930e-01 3.36081892e-01 3.92379873e-02
      4.07733887e-01</_>
    <_>
      2.63042515e-03 5.79351187e-01 1.51468650e-01 1.62209552e-02
      2.50328809e-01</_>
    <_>
      3.87806118e-01 6.19690157e-02 1.58920541e-01 2.31884062e-01
      1.59420297e-01</_>
    <_>
      6.79433346e-02 1.65267572e-01 2.47639015e-01 1.23032525e-01
      3.96117508e-01</_>
    <_>
      2.65383497e-02 3.08836401e-01 3.16710413e-01 1.81977257e-01
      1.65937588e-01</_>
    <_>
      3.77429724e-02 2.89677292e-01 5.12926996e-01 7.51085132e-02
      8.45442563e-02</_>
    <_>
      3.20436269e-01 1.29576728e-01 2.66943663e-01 1.41262010e-01
      1.41781360e-01</_>
    <_>
      9.31542460e-03 1.37781635e-01 3.43370885e-01 8.90381262e-02
      4.20493931e-01</_>
    <_>
      7.43362820e-03 1.56460181e-01 3.42300892e-01 9.02654827e-02
      4.03539807e-01</_>
    <_>
      3.47345136e-02 2.43141592e-01 3.14380527e-01 2.23893806e-01
      1.83849558e-01</_>
    <_>
      3.15258512e-04 3.67906690e-01 1.17276169e-01 7.34552369e-02
      4.41046655e-01</_>
    <_>
      5.59664547e-01 2.78307293e-02 8.42546746e-02 2.13877246e-01
      1.14372857e-01</_>
    <_>
      4.34536338e-01 2.89778709e-02 8.73287618e-02 1.64646983e-01
      2.84509987e-01</_>
    <_>
      9.89011023e-03 3.08791220e-01 4.58241761e-01 5.56776561e-02
      1.67399272e-01</_></support_vectors>
  <decision_functions>
    <_>
      <sv_count>102</sv_count>
      <rho>1.0025726895927090e+00</rho>
      <alpha>
        1. 1. 1. 1. 1. 1. 1. 1. 1. 1. 1. 1. 1. 1. 1. 1. 1. 1. 1. 1. 1.
        1. 1. 1. 1. 1. 1. 1. 1. 1. 1. 1. 1. 1. 1. 1. 1. 1. 1. 1. 1. 1.
        1. 1. 1. -1.4019585465294540e-01 -1. -1. -1. -1. -1. -1. -1. -1.
        -9.0989057466332590e-01 -1. -1. -1.5130261207205290e-02 -1. -1.
        -1. -1. -1. -1. -8.7667420119358397e-01 -1.
        -7.8266556900584050e-01 -1.8575462023568196e-01 -1. -1. -1.
        -1.9262591614453159e-01 -5.8154825673979249e-01
        -9.8628188929304539e-01 -4.8195638795052670e-01 -1. -1.
        -9.4040422178960192e-01 -4.9740123258598978e-01
        -9.6411404503289710e-01 -7.4500657196319275e-01
        -7.3719935993222119e-01 -1. -8.9788838957120320e-01 -1.
        -3.3051989954780958e-01 -1. -4.4291657278453349e-03 -1. -1. -1.
        -2.9021475523105372e-01 -5.9208697825905654e-01 -1. -1.
        -6.2437991017665936e-02 -2.6342976894493453e-01 -1.
        -4.6609117173854259e-01 -2.0401257727605232e-01
        -8.5204034029545339e-01 -1.</alpha>
      <index>
        0 1 2 3 4 5 6 7 8 9 10 11 12 13 14 15 16 17 18 19 20 21 22 23 24
        25 26 27 28 29 30 31 32 33 34 35 36 37 38 39 40 41 42 43 44 47
        49 50 52 53 56 58 65 67 68 70 71 77 78 79 85 86 87 88 92 93 96
        97 99 100 107 108 110 111 112 115 116 117 119 121 122 123 127
        131 132 135 137 138 139 140 143 144 145 146 148 150 152 153 154
        156 158 161</index></_>
    <_>
      <sv_count>64</sv_count>
      <rho>1.9036501755904639e-01</rho>
      <alpha>
        1. 1. 1. 1. 1. 1. 1. 1. 1. 1. 7.5674735398788873e-01 1. 1. 1. 1.
        1. 1. 1. 1. 1. 1. 1. 1. 1. 1. 1. 1. 1. 1. 1.
        7.4951106063078843e-01 1. -1. -1. -1. -1. -1. -1. -1. -1. -1.
        -1. -1. -1. -1. -8.0755376661525258e-01 -1. -1. -1. -1. -1. -1.
        -1. -1. -1. -1. -1. -6.9870464800342436e-01 -1. -1. -1. -1. -1.
        -1.</alpha>
      <index>
        0 1 2 3 4 6 8 10 11 12 13 14 15 16 18 19 20 21 22 24 25 26 27 29
        30 34 35 36 37 38 40 41 162 163 166 167 173 177 178 179 183 188
        190 196 198 202 205 209 210 213 216 222 223 227 229 235 236 241
        244 248 249 250 252 257</index></_>
    <_>
      <sv_count>64</sv_count>
      <rho>8.2409473519147389e-02</rho>
      <alpha>
        1. 1. 1. 1. 1. 1. 1. 1. 1. 1. 1. 1. 1. 1. 1. 1. 1. 1. 1. 1. 1.
        1. 1. 1. 1. 1. 1. 1. 1. 1. 9.9080182245565773e-01
        -7.3743687568038591e-02 -1. -1. -1. -1. -1. -1. -1. -1. -1. -1.
        -1. -1. -1. -1. -1. -1. -5.8376943316345287e-01 -1. -1.
        -3.3328870172416619e-01 -1. -1. -1. -1. -1. -1. -1. -1. -1. -1.
        -1. -1.</alpha>
      <index>
        0 1 2 3 4 6 8 10 11 12 14 15 16 18 19 20 21 22 24 25 26 27 29 30
        34 35 36 37 38 41 43 259 268 284 288 289 290 292 293 295 302 307
        308 311 312 315 316 318 326 329 335 343 344 346 348 350 353 357
        358 360 368 370 371 372</index></_>
    <_>
      <sv_count>87</sv_count>
      <rho>5.1031051189604215e-01</rho>
      <alpha>
        1. 1. 1. 1. 1. 1. 1. 1. 1. 1. 1. 1. 1. 1. 1. 1. 1. 1. 1. 1. 1.
        1. 1. 1. 1. 1. 1. 1. 1. 1. 1. 1. 1. 1. 1. 9.8924839346812299e-01
        1. 1. 1. 1. 1. 1. 1. -1. -1. -1. -1. -1. -1. -1. -1. -1. -1. -1.
        -1. -1. -1. -1. -1. -6.6009889149947587e-01 -1. -1. -1. -1. -1.
        -1. -1. -1. -1. -1. -1. -1. -1. -1. -1. -1. -1.
        -6.4477150654548121e-01 -1. -1. -1. -6.8437799542316591e-01 -1.
        -1. -1. -1. -1.</alpha>
      <index>
        0 1 2 3 4 5 7 8 9 10 11 12 13 14 15 16 17 18 19 20 21 22 23 24
        25 26 27 28 29 30 31 32 33 34 35 36 37 38 39 41 42 43 44 377 379
        380 381 383 386 388 389 392 395 397 398 399 400 401 402 403 404
        407 412 414 415 416 417 419 420 421 424 425 426 428 432 434 436
        439 440 442 446 447 448 450 453 455 456</index></_>
    <_>
      <sv_count>143</sv_count>
      <rho>4.1305494510144723e-02</rho>
      <alpha>
        1. 1. 1. 1. 1. 1. 1. 1. 1. 1. 1. 1. 1. 9.8824910871124650e-03 1.
        1. 1. 1. 1. 1. 1. 1. 1. 1. 1. 1. 1. 1. 1. 1. 1. 1. 1. 1. 1.
        6.9155223983555503e-01 1. 1. 1. 1. 1. 1. 1. 1. 1. 1. 1. 1. 1. 1.
        1.2530483742350218e-01 1. 1. 1. 1. 1. 1. 1. 1. 1. 1. 1. 1. 1. 1.
        1. 1. 1. 1. 1. 1. 1. -1. -1. -7.1142885589176175e-01 -1. -1. -1.
        -1. -1. -1. -4.8083425736669944e-01 -1. -1. -1. -1. -1. -1. -1.
        -1. -1. -1. -1. -1. -1. -1. -1. -1. -1. -1. -1. -1. -1. -1. -1.
        -1. -1. -1. -1. -1. -1. -1. -1. -1. -1. -1. -1. -1. -1. -1. -1.
        -1. -1. -9.3702711370893754e-01 -1. -6.9744934137877013e-01 -1.
        -1. -1. -1. -1. -1. -1. -1. -1. -1. -1. -1. -1. -1. -1. -1. -1.</alpha>
      <index>
        45 46 47 49 50 51 52 54 57 59 60 61 62 63 64 65 66 67 68 69 72
        74 76 78 80 83 87 91 94 95 96 100 102 103 105 108 109 110 111
        113 114 115 116 117 118 119 120 121 122 124 126 127 128 129 130
        131 133 134 135 136 137 138 141 142 146 148 149 151 152 155 157
        161 162 163 164 165 166 167 168 169 171 172 173 174 177 178 179
        182 183 185 186 187 188 190 193 195 196 198 200 201 202 203 204
        205 206 207 208 209 210 211 212 213 215 216 217 218 220 221 222
        223 226 227 229 231 232 233 234 235 236 237 241 244 246 248 249
        250 252 253 254 255 256 257 258</index></_>
    <_>
      <sv_count>144</sv_count>
      <rho>-9.8332523390149487e-03</rho>
      <alpha>
        1. 1. 1. 1. 1. 1. 1. 1. 1.9545450276479265e-01 1. 1. 1. 1. 1. 1.
        1. 1. 1. 1. 1. 1. 1. 1. 1. 1. 1. 1. 1. 1. 1. 1. 1. 1. 1. 1. 1.
        1. 1. 1. 1. 1. 1. 1. 1. 1. 1. 1. 1. 1. 1. 1. 1. 1. 1. 1. 1. 1.
        1. 1. 1. 1. 1. 1. 1. 1. 1. 1. 1. 1. 1. 8.1258866054503653e-01 1.
        -1. -1. -1. -9.1228766202106959e-01 -1. -1. -1. -1. -1. -1. -1.
        -1. -1. -1. -1. -1. -1. -1. -1. -1. -1. -1.
        -7.0654218528012347e-01 -1. -1. -1. -1. -1. -1. -1. -1. -1. -1.
        -1. -1. -1. -1. -1. -1. -1. -1. -1. -1. -1. -1. -1. -1. -1. -1.
        -1. -1. -1. -1. -1. -1. -1. -1. -1. -1. -1. -1.
        -3.8921331600863623e-01 -1. -1. -1. -1. -1. -1. -1. -1. -1. -1.</alpha>
      <index>
        45 46 47 49 50 51 52 54 55 57 59 60 61 62 64 65 66 67 68 69 72
        74 76 78 80 83 87 91 94 95 96 100 102 103 105 108 109 110 111
        113 114 115 116 117 118 119 120 121 122 124 127 128 129 130 131
        133 134 135 136 137 138 141 142 146 148 149 151 152 155 157 160
        161 259 260 261 264 265 266 268 269 272 275 279 280 281 284 285
        288 289 290 291 292 293 295 301 302 303 306 307 308 311 312 314
        315 316 317 318 320 321 323 324 326 329 331 332 334 335 337 338
        342 343 344 346 347 348 350 351 353 355 356 357 358 360 361 364
        366 367 368 369 370 371 372 373 374</index></_>
    <_>
      <sv_count>166</sv_count>
      <rho>1.3459618359062922e-01</rho>
      <alpha>
        1. 1. 1. 1. 1. 1. 1. 1. 1. 1. 1. 1. 1. 1. 1. 1. 1. 1.
        8.0472909330978648e-01 1. 1. 1. 1. 1. 1. 1. 1. 1. 1. 1. 1. 1. 1.
        1. 1. 1. 1. 1. 1. 1. 1. 1. 1. 1. 1. 1. 1. 9.4104877953162880e-01
        1. 6.4403910488344795e-01 1. 1. 1. 1. 1. 1. 1. 1. 1. 1.
        9.2250894156676547e-02 1. 2.3525312376031626e-01 1. 1. 1. 1. 1.
        1. 1. 1. 1. 1. 1. 1. 1. 1. 1. 1. 1. 1. 1. 1. 1. -1.
        -7.1732099564185592e-01 -1. -1. -1. -1. -1. -1. -1. -1. -1. -1.
        -1. -1. -1. -1. -1. -1. -1. -1. -1. -1. -1. -1. -1. -1. -1. -1.
        -1. -1. -1. -1. -1. -1. -1. -1. -1. -1. -1. -1. -1. -1. -1. -1.
        -1. -1. -1. -1. -1. -1. -1. -1. -1. -1. -1. -1. -1. -1. -1. -1.
        -1. -1. -1. -1. -1. -1. -1. -1. -1. -1. -1. -1. -1. -1. -1. -1.
        -1. -1. -1. -1. -1. -1.</alpha>
      <index>
        45 46 47 48 49 51 54 55 57 59 60 61 62 63 64 66 68 69 70 72 73
        74 75 76 81 82 83 84 87 89 90 91 92 94 95 96 98 100 101 102 103
        104 105 106 108 109 110 111 112 113 114 115 116 117 118 119 120
        121 122 124 125 126 128 129 130 131 133 134 135 136 137 138 141
        142 145 146 147 149 150 151 155 157 159 160 375 376 377 378 379
        380 381 382 383 384 385 386 387 388 389 390 391 392 393 394 395
        396 397 398 399 400 401 402 403 404 405 406 407 408 409 410 411
        412 413 414 415 416 417 418 419 420 421 422 423 424 425 426 427
        428 429 430 431 432 433 434 435 436 437 438 439 440 441 442 443
        445 446 447 448 449 450 451 452 453 454 455 456 457</index></_>
    <_>
      <sv_count>193</sv_count>
      <rho>-4.1062922886908587e-01</rho>
      <alpha>
        1. 1. 1. 1. 1. 1. 1. 1. 1. 1. 1. 1. 1. 1. 1. 1. 1. 1. 1. 1. 1.
        1. 1. 1. 1. 1. 1. 5.8311593268082829e-01 1. 1. 1. 1. 1. 1. 1. 1.
        1. 1. 1. 1. 1. 1. 1. 1. 1. 1. 1. 1. 1. 1. 1. 1. 1. 1. 1. 1. 1.
        1. 1. 1. 1. 1. 1. 1. 1. 1. 1. 1. 1. 1. 1. 1. 1. 1. 1. 1. 1. 1.
        1. 1. 1. 1. 1. 1. 1. 1. 1. 1. 1. 1. 1. 1. 1. 1. 1. 1. -1. -1.
        -1. -1. -1. -1. -1. -1. -1. -1. -1. -1. -1. -1. -1. -1. -1. -1.
        -1. -1. -1. -1. -1. -1. -1. -1. -1. -1. -1. -1. -1. -1. -1. -1.
        -1. -1. -1. -1. -1. -1. -1. -1. -1. -1. -1. -1. -1. -1.
        -8.3917830965775075e-01 -1. -1. -1. -1. -1. -1. -1. -1. -1. -1.
        -1. -1. -1. -1. -1. -1. -1. -1. -1. -1. -1. -1. -1. -1. -1. -1.
        -1. -1. -1. -8.8832654183553927e-01 -1. -1.
        -9.7466841417255257e-01 -1. -1. -8.9630946553544388e-01 -1. -1.
        -8.9585841971141122e-01 -1. -1. -1. -8.8774781768130237e-02 -1.
        -1. -1. -1. -1.</alpha>
      <index>
        162 163 164 165 166 167 168 169 170 171 172 173 174 175 176 177
        178 179 180 181 182 183 184 185 186 187 188 189 190 191 192 193
        194 195 196 197 198 199 200 201 202 203 204 205 206 207 208 209
        210 211 212 213 214 215 216 217 218 219 220 221 222 223 224 225
        226 227 228 229 230 231 232 234 235 236 237 238 239 240 241 242
        243 244 245 246 247 248 249 250 251 252 253 254 255 256 257 258
        259 260 261 263 264 265 266 268 270 271 272 273 275 278 279 281
        282 284 285 286 287 288 289 290 292 293 297 298 300 301 302 303
        304 305 306 307 308 309 310 311 312 313 315 316 317 318 319 320
        321 322 323 324 325 326 327 328 329 330 331 332 333 334 335 336
        337 338 339 340 341 342 343 344 345 346 347 348 349 351 353 354
        355 357 358 360 362 363 364 365 366 367 368 369 370 371 372 373
        374</index></_>
    <_>
      <sv_count>131</sv_count>
      <rho>3.8638551410245449e-02</rho>
      <alpha>
        1. 1. 1. 1. 1. 1. 1. 8.9876975678855953e-01 1. 1. 1. 1. 1. 1. 1.
        1. 1. 1. 1. 1. 1. 1. 1. 1. 1. 1. 8.1038055147336377e-02 1. 1. 1.
        1. 1. 1. 1. 1. 1. 1. 1. 1. 1. 1. 1. 1. 1. 1. 1. 1. 1.
        1.9050824314721063e-02 1. 1. 1. 1. 1. 1. 1. 1. 1. 1. 1. 1. 1. 1.
        1. 1. 1. -1. -1. -1. -1. -1. -3.2608043759582089e-01 -1. -1. -1.
        -1. -1. -1. -1. -1. -1. -1. -1. -1. -1. -1. -1. -1. -1. -1. -1.
        -1. -1. -1. -1. -1. -1. -1. -1. -1. -1. -1. -1. -1. -1. -1. -1.
        -1. -1. -1. -1. -1. -1. -1. -1. -1. -1. -1. -1. -1. -1. -1. -1.
        -1. -1. -6.7277819865479604e-01 -1. -1. -1. -1. -1.</alpha>
      <index>
        162 163 164 165 166 167 170 172 174 176 177 178 179 180 182 183
        185 186 187 188 190 191 193 195 196 198 199 202 203 204 205 206
        207 208 210 211 212 213 216 217 220 221 222 224 225 226 227 228
        229 230 231 233 234 235 238 243 244 246 247 248 249 252 254 256
        257 258 376 378 379 382 383 384 385 386 387 388 389 390 391 392
        394 396 399 400 401 402 404 405 406 407 408 409 410 411 414 415
        416 417 418 419 423 424 425 426 427 428 429 430 431 432 433 435
        436 437 438 439 440 441 442 443 444 445 447 448 449 450 451 452
        453 454 457</index></_>
    <_>
      <sv_count>134</sv_count>
      <rho>-1.6263668060143019e-01</rho>
      <alpha>
        1. 1. 1. 1. 1. 1. 1. 1. 1. 7.4026890554911873e-01 1. 1. 1. 1. 1.
        1. 1. 5.9284998376052922e-01 1. 1. 1. 1. 1. 1. 1. 1. 1. 1. 1. 1.
        1. 1. 1. 1. 8.7167745847879718e-01 1. 4.7803915876828013e-01 1.
        1. 1. 1. 1. 1. 1. 2.2543953042726766e-01 1. 1. 1. 1. 1. 1. 1. 1.
        1. 1. 1. 1. 1. 1. 1. 1. 1. 1. 1. 1. 1. 1. 1. -1. -1. -1. -1. -1.
        -1. -1. -1. -1. -1. -1. -1. -1. -1. -1. -1. -1. -1. -1. -1. -1.
        -1. -1. -1. -1. -1. -1. -1. -9.0827503698399292e-01 -1. -1. -1.
        -1. -1. -1. -1. -1. -1. -1. -1. -1. -1. -1. -1. -1. -1. -1. -1.
        -1. -1. -1. -1. -1. -1. -1. -1. -1. -1. -1. -1. -1. -1. -1. -1.
        -1. -1.</alpha>
      <index>
        259 260 262 264 267 268 269 272 274 276 277 279 280 281 283 284
        288 289 290 291 293 294 295 296 299 302 306 308 309 310 312 314
        315 316 317 318 319 320 323 325 329 331 333 335 336 338 340 342
        343 344 345 346 348 350 352 353 357 359 360 361 362 363 364 365
        368 371 372 374 376 378 379 382 383 384 385 386 387 388 389 390
        391 392 394 396 399 400 401 402 404 405 406 407 408 409 410 411
        413 414 415 416 417 418 419 423 424 425 426 427 428 429 430 431
        432 433 435 436 437 438 439 440 441 442 443 444 445 447 448 449
        450 451 452 453 454 457</index></_></decision_functions></my_svm>
</opencv_storage>
